=== Run information ===

Scheme:       weka.classifiers.trees.J48 -C 0.25 -M 2
Relation:     cities
Instances:    1726
Attributes:   9
              FirstLetterUppercase
              StateAfter
              City:
              CommaAfter
              CommaBefore
              AfterInkeyword
              CitykeywordAfter
              AllCapital
              Class
Test mode:    10-fold cross-validation

=== Classifier model (full training set) ===

J48 pruned tree
------------------

CommaAfter = 1
|   AllCapital = 1
|   |   StateAfter = 1: 1 (2.0)
|   |   StateAfter = 0: 0 (4.0)
|   AllCapital = 0: 1 (136.0)
CommaAfter = 0
|   StateAfter = 1
|   |   AllCapital = 1: 0 (17.0/2.0)
|   |   AllCapital = 0
|   |   |   FirstLetterUppercase = 1: 1 (29.0/6.0)
|   |   |   FirstLetterUppercase = 0: 0 (12.0/1.0)
|   StateAfter = 0
|   |   City: = 1: 1 (4.0)
|   |   City: = 0: 0 (1522.0/58.0)

Number of Leaves  : 	8

Size of the tree : 	15


Time taken to build model: 0.04 seconds

=== Stratified cross-validation ===
=== Summary ===

Correctly Classified Instances        1655               95.8864 %
Incorrectly Classified Instances        71                4.1136 %
Kappa statistic                          0.8009
Mean absolute error                      0.0741
Root mean squared error                  0.1937
Relative absolute error                 32.5235 %
Root relative squared error             57.4247 %
Total Number of Instances             1726     

=== Detailed Accuracy By Class ===

                 TP Rate  FP Rate  Precision  Recall   F-Measure  MCC      ROC Area  PRC Area  Class
                 0.735    0.007    0.938      0.735    0.824      0.809    0.861     0.800     1
                 0.993    0.265    0.961      0.993    0.977      0.809    0.861     0.958     0
Weighted Avg.    0.959    0.232    0.958      0.959    0.957      0.809    0.861     0.938     

=== Confusion Matrix ===

    a    b   <-- classified as
  166   60 |    a = 1
   11 1489 |    b = 0

